<?xml version="1.0"?>
<opencv_storage>
<stage5>
  <maxWeakCount>6</maxWeakCount>
  <stageThreshold>-1.4434837102890015e+00</stageThreshold>
  <weakClassifiers>
    <_>
      <internalNodes>
        0 -1 477941 3.6479401588439941e-01</internalNodes>
      <leafValues>
        -8.0692875385284424e-01 2.1548238396644592e-01</leafValues></_>
    <_>
      <internalNodes>
        0 -1 4511492 -7.7949441969394684e-02</internalNodes>
      <leafValues>
        3.2026043534278870e-01 -7.2072803974151611e-01</leafValues></_>
    <_>
      <internalNodes>
        0 -1 120977 -7.1335071697831154e-03</internalNodes>
      <leafValues>
        3.0476745963096619e-01 -8.0740302801132202e-01</leafValues></_>
    <_>
      <internalNodes>
        0 -1 3587351 -8.0041140317916870e-03</internalNodes>
      <leafValues>
        3.9388412237167358e-01 -6.5390974283218384e-01</leafValues></_>
    <_>
      <internalNodes>
        0 -1 15436 1.9915990531444550e-01</internalNodes>
      <leafValues>
        -8.1453567743301392e-01 2.9064708948135376e-01</leafValues></_>
    <_>
      <internalNodes>
        0 -1 1371199 -1.9298805273137987e-04</internalNodes>
      <leafValues>
        -8.6011987924575806e-01 2.1385027468204498e-01</leafValues></_></weakClassifiers></stage5>
</opencv_storage>
