<?xml version="1.0"?>
<opencv_storage>
<stage9>
  <maxWeakCount>7</maxWeakCount>
  <stageThreshold>-1.4340981245040894e+00</stageThreshold>
  <weakClassifiers>
    <_>
      <internalNodes>
        0 -1 4422674 1.2093117833137512e-01</internalNodes>
      <leafValues>
        -6.4978289604187012e-01 6.2500000000000000e-02</leafValues></_>
    <_>
      <internalNodes>
        0 -1 324434 4.4856667518615723e-02</internalNodes>
      <leafValues>
        -7.3734277486801147e-01 2.1295452117919922e-01</leafValues></_>
    <_>
      <internalNodes>
        0 -1 765837 2.1906805341131985e-04</internalNodes>
      <leafValues>
        1.7330451309680939e-01 -8.3491128683090210e-01</leafValues></_>
    <_>
      <internalNodes>
        0 -1 5003374 4.1945517295971513e-04</internalNodes>
      <leafValues>
        1.8859320878982544e-01 -7.7047419548034668e-01</leafValues></_>
    <_>
      <internalNodes>
        0 -1 5003374 -2.1008129988331348e-04</internalNodes>
      <leafValues>
        -7.6308113336563110e-01 2.0273075997829437e-01</leafValues></_>
    <_>
      <internalNodes>
        0 -1 163213 -3.1036755535751581e-04</internalNodes>
      <leafValues>
        -8.1858444213867188e-01 1.1937175691127777e-01</leafValues></_>
    <_>
      <internalNodes>
        0 -1 13238 -1.3792878016829491e-03</internalNodes>
      <leafValues>
        2.2249819338321686e-01 -6.2959772348403931e-01</leafValues></_></weakClassifiers></stage9>
</opencv_storage>
